digraph Tree {
node [shape=box] ;
0 [label="LSTAT <= 9.01\nmse = 81.047\nsamples = 222\nvalue = 22.995"] ;
1 [label="RM <= 6.659\nmse = 79.202\nsamples = 81\nvalue = 31.325"] ;
0 -> 1 [labeldistance=2.5, labelangle=45, headlabel="True"] ;
2 [label="mse = 29.053\nsamples = 38\nvalue = 25.698"] ;
1 -> 2 ;
3 [label="mse = 69.9\nsamples = 43\nvalue = 36.432"] ;
1 -> 3 ;
4 [label="LSTAT <= 16.04\nmse = 24.471\nsamples = 141\nvalue = 18.505"] ;
0 -> 4 [labeldistance=2.5, labelangle=-45, headlabel="False"] ;
5 [label="PTRATIO <= 19.15\nmse = 9.834\nsamples = 87\nvalue = 21.232"] ;
4 -> 5 ;
6 [label="mse = 9.571\nsamples = 48\nvalue = 22.01"] ;
5 -> 6 ;
7 [label="mse = 8.619\nsamples = 39\nvalue = 20.328"] ;
5 -> 7 ;
8 [label="mse = 13.891\nsamples = 54\nvalue = 13.675"] ;
4 -> 8 ;
}